FANN_FLO_2.1
num_layers=3
learning_rate=0.700000
connection_rate=1.000000
network_type=0
learning_momentum=0.000000
training_algorithm=2
train_error_function=1
train_stop_function=0
cascade_output_change_fraction=0.010000
quickprop_decay=-0.000100
quickprop_mu=1.750000
rprop_increase_factor=1.200000
rprop_decrease_factor=0.500000
rprop_delta_min=0.000000
rprop_delta_max=50.000000
rprop_delta_zero=0.100000
cascade_output_stagnation_epochs=12
cascade_candidate_change_fraction=0.010000
cascade_candidate_stagnation_epochs=12
cascade_max_out_epochs=150
cascade_min_out_epochs=50
cascade_max_cand_epochs=150
cascade_min_cand_epochs=50
cascade_num_candidate_groups=2
bit_fail_limit=3.49999994039535520000e-001
cascade_candidate_limit=1.00000000000000000000e+003
cascade_weight_multiplier=4.00000005960464480000e-001
cascade_activation_functions_count=10
cascade_activation_functions=3 5 7 8 10 11 14 15 16 17 
cascade_activation_steepnesses_count=4
cascade_activation_steepnesses=2.50000000000000000000e-001 5.00000000000000000000e-001 7.50000000000000000000e-001 1.00000000000000000000e+000 
layer_sizes=26 4 3 
scale_included=0
neurons (num_inputs, activation_function, activation_steepness)=(0, 0, 0.00000000000000000000e+000) (0, 0, 0.00000000000000000000e+000) (0, 0, 0.00000000000000000000e+000) (0, 0, 0.00000000000000000000e+000) (0, 0, 0.00000000000000000000e+000) (0, 0, 0.00000000000000000000e+000) (0, 0, 0.00000000000000000000e+000) (0, 0, 0.00000000000000000000e+000) (0, 0, 0.00000000000000000000e+000) (0, 0, 0.00000000000000000000e+000) (0, 0, 0.00000000000000000000e+000) (0, 0, 0.00000000000000000000e+000) (0, 0, 0.00000000000000000000e+000) (0, 0, 0.00000000000000000000e+000) (0, 0, 0.00000000000000000000e+000) (0, 0, 0.00000000000000000000e+000) (0, 0, 0.00000000000000000000e+000) (0, 0, 0.00000000000000000000e+000) (0, 0, 0.00000000000000000000e+000) (0, 0, 0.00000000000000000000e+000) (0, 0, 0.00000000000000000000e+000) (0, 0, 0.00000000000000000000e+000) (0, 0, 0.00000000000000000000e+000) (0, 0, 0.00000000000000000000e+000) (0, 0, 0.00000000000000000000e+000) (0, 0, 0.00000000000000000000e+000) (26, 5, 5.00000000000000000000e-001) (26, 5, 5.00000000000000000000e-001) (26, 5, 5.00000000000000000000e-001) (0, 5, 0.00000000000000000000e+000) (4, 5, 5.00000000000000000000e-001) (4, 5, 5.00000000000000000000e-001) (0, 5, 0.00000000000000000000e+000) 
connections (connected_to_neuron, weight)=(0, -1.21081805229187010000e+000) (1, -4.97229516506195070000e-001) (2, -1.67602550983428960000e+000) (3, 2.11199545860290530000e+000) (4, 2.67072796821594240000e+000) (5, -1.12331795692443850000e+000) (6, 3.24386620521545410000e+000) (7, 8.08681392669677730000e+000) (8, 7.79787397384643550000e+000) (9, 3.04078280925750730000e-001) (10, -3.69598245620727540000e+000) (11, -4.38728481531143190000e-001) (12, -4.79374694824218750000e+000) (13, -1.28781566619873050000e+001) (14, -2.64954257011413570000e+000) (15, -2.16333460807800290000e+000) (16, -4.69399642944335940000e+000) (17, -2.77314692735672000000e-001) (18, 4.47350692749023440000e+000) (19, -8.25687122344970700000e+000) (20, -2.14028382301330570000e+000) (21, -2.47960519790649410000e+000) (22, 2.42971944808959960000e+000) (23, 6.16945123672485350000e+000) (24, -9.92038846015930180000e-002) (25, -8.13891696929931640000e+000) (0, -5.46173667907714840000e+001) (1, -1.09325813293457030000e+002) (2, 2.91899642944335940000e+001) (3, -1.43731140136718750000e+002) (4, -1.93951751708984370000e+002) (5, 1.16402885437011720000e+002) (6, 4.10142791748046870000e+002) (7, -1.88886077880859370000e+002) (8, -4.27144775390625000000e+002) (9, -3.34254058837890620000e+002) (10, 2.09430557250976560000e+002) (11, 6.93847656250000000000e+002) (12, -2.74794464111328120000e+002) (13, 3.61938964843750000000e+002) (14, -2.50770294189453130000e+002) (15, -1.22482925415039060000e+002) (16, 2.56766204833984380000e+002) (17, -1.29837142944335940000e+002) (18, -2.69166046142578120000e+002) (19, -2.51190322875976560000e+002) (20, 7.72329940795898440000e+001) (21, 1.74208557128906250000e+002) (22, 3.72878631591796870000e+002) (23, -1.27294029235839840000e+002) (24, 2.34451126098632810000e+002) (25, 8.38649139404296870000e+001) (0, -4.00914192199707030000e-001) (1, -4.48226779699325560000e-001) (2, -9.16962444782257080000e-001) (3, 8.11142846941947940000e-002) (4, -6.33279532194137570000e-002) (5, -6.39564931392669680000e-001) (6, -1.01739120483398440000e+000) (7, 4.23998928070068360000e+000) (8, -1.06618978083133700000e-001) (9, -9.03774797916412350000e-002) (10, -4.95383411645889280000e-001) (11, -5.64522325992584230000e-001) (12, 6.49770975112915040000e+000) (13, -3.54965597391128540000e-001) (14, 3.95824968814849850000e-001) (15, -9.61001683026552200000e-003) (16, -9.36177611351013180000e-001) (17, 3.92138332128524780000e-001) (18, 3.05355250835418700000e-001) (19, -4.81103407219052310000e-003) (20, -1.97477459907531740000e-001) (21, -1.78077608346939090000e-001) (22, -1.65734374523162840000e+000) (23, -3.10749793425202370000e-003) (24, 3.73236574232578280000e-002) (25, 4.17365789413452150000e+000) (26, 7.12403595447540280000e-001) (27, 4.72364068031311040000e-001) (28, 4.22409534454345700000e-001) (29, 3.08937996625900270000e-001) (26, -1.80219516158103940000e-001) (27, 4.85774159431457520000e-001) (28, 1.30377042293548580000e+000) (29, 1.29599273204803470000e+000) 
