FANN_FLO_2.1
num_layers=3
learning_rate=0.700000
connection_rate=1.000000
network_type=0
learning_momentum=0.000000
training_algorithm=2
train_error_function=1
train_stop_function=0
cascade_output_change_fraction=0.010000
quickprop_decay=-0.000100
quickprop_mu=1.750000
rprop_increase_factor=1.200000
rprop_decrease_factor=0.500000
rprop_delta_min=0.000000
rprop_delta_max=50.000000
rprop_delta_zero=0.100000
cascade_output_stagnation_epochs=12
cascade_candidate_change_fraction=0.010000
cascade_candidate_stagnation_epochs=12
cascade_max_out_epochs=150
cascade_min_out_epochs=50
cascade_max_cand_epochs=150
cascade_min_cand_epochs=50
cascade_num_candidate_groups=2
bit_fail_limit=3.49999994039535520000e-001
cascade_candidate_limit=1.00000000000000000000e+003
cascade_weight_multiplier=4.00000005960464480000e-001
cascade_activation_functions_count=10
cascade_activation_functions=3 5 7 8 10 11 14 15 16 17 
cascade_activation_steepnesses_count=4
cascade_activation_steepnesses=2.50000000000000000000e-001 5.00000000000000000000e-001 7.50000000000000000000e-001 1.00000000000000000000e+000 
layer_sizes=3 4 4 
scale_included=0
neurons (num_inputs, activation_function, activation_steepness)=(0, 0, 0.00000000000000000000e+000) (0, 0, 0.00000000000000000000e+000) (0, 0, 0.00000000000000000000e+000) (3, 5, 5.00000000000000000000e-001) (3, 5, 5.00000000000000000000e-001) (3, 5, 5.00000000000000000000e-001) (0, 5, 0.00000000000000000000e+000) (4, 5, 5.00000000000000000000e-001) (4, 5, 5.00000000000000000000e-001) (4, 5, 5.00000000000000000000e-001) (0, 5, 0.00000000000000000000e+000) 
connections (connected_to_neuron, weight)=(0, 8.13987731933593750000e+000) (1, 2.20541095733642580000e+000) (2, -3.53844428062438960000e+000) (0, -5.34152889251708980000e+000) (1, 1.56169664859771730000e+000) (2, -8.51753652095794680000e-001) (0, -8.63351285457611080000e-001) (1, -1.25476861000061040000e+000) (2, 5.25884032249450680000e-001) (3, 2.24859309196472170000e+000) (4, 3.37420248985290530000e+000) (5, 5.47218084335327150000e+000) (6, 2.07085919380187990000e+000) (3, 3.59680557250976560000e+000) (4, -2.96430736780166630000e-001) (5, 1.77788531780242920000e+000) (6, 2.81771278381347660000e+000) (3, -4.32034683227539060000e+000) (4, -4.86525726318359370000e+000) (5, 1.36492264270782470000e+000) (6, -3.82720679044723510000e-001) 
