FANN_FLO_2.1
num_layers=3
learning_rate=0.700000
connection_rate=1.000000
network_type=0
learning_momentum=0.000000
training_algorithm=2
train_error_function=1
train_stop_function=0
cascade_output_change_fraction=0.010000
quickprop_decay=-0.000100
quickprop_mu=1.750000
rprop_increase_factor=1.200000
rprop_decrease_factor=0.500000
rprop_delta_min=0.000000
rprop_delta_max=50.000000
rprop_delta_zero=0.100000
cascade_output_stagnation_epochs=12
cascade_candidate_change_fraction=0.010000
cascade_candidate_stagnation_epochs=12
cascade_max_out_epochs=150
cascade_min_out_epochs=50
cascade_max_cand_epochs=150
cascade_min_cand_epochs=50
cascade_num_candidate_groups=2
bit_fail_limit=3.49999994039535520000e-001
cascade_candidate_limit=1.00000000000000000000e+003
cascade_weight_multiplier=4.00000005960464480000e-001
cascade_activation_functions_count=10
cascade_activation_functions=3 5 7 8 10 11 14 15 16 17 
cascade_activation_steepnesses_count=4
cascade_activation_steepnesses=2.50000000000000000000e-001 5.00000000000000000000e-001 7.50000000000000000000e-001 1.00000000000000000000e+000 
layer_sizes=3 4 4 
scale_included=0
neurons (num_inputs, activation_function, activation_steepness)=(0, 0, 0.00000000000000000000e+000) (0, 0, 0.00000000000000000000e+000) (0, 0, 0.00000000000000000000e+000) (3, 5, 5.00000000000000000000e-001) (3, 5, 5.00000000000000000000e-001) (3, 5, 5.00000000000000000000e-001) (0, 5, 0.00000000000000000000e+000) (4, 5, 5.00000000000000000000e-001) (4, 5, 5.00000000000000000000e-001) (4, 5, 5.00000000000000000000e-001) (0, 5, 0.00000000000000000000e+000) 
connections (connected_to_neuron, weight)=(0, 6.82300901412963870000e+000) (1, -1.90052521228790280000e+000) (2, 2.45919299125671390000e+000) (0, 9.51399207115173340000e-001) (1, -3.89662057161331180000e-001) (2, 1.22613258659839630000e-001) (0, 1.26650857925415040000e+000) (1, 1.05223572254180910000e+000) (2, 1.42683148384094240000e-001) (3, -1.92940330505371090000e+000) (4, 2.32825613021850590000e+000) (5, -1.35538685321807860000e+000) (6, 1.57056045532226560000e+000) (3, -1.57822930812835690000e+000) (4, 5.98141574859619140000e+000) (5, 4.09342378377914430000e-001) (6, 9.99044418334960940000e-001) (3, 3.28908252716064450000e+000) (4, -3.44928503036499020000e+000) (5, -3.15014815330505370000e+000) (6, 3.03561568260192870000e-001) 
