FANN_FLO_2.1
num_layers=3
learning_rate=0.700000
connection_rate=1.000000
network_type=0
learning_momentum=0.000000
training_algorithm=2
train_error_function=1
train_stop_function=0
cascade_output_change_fraction=0.010000
quickprop_decay=-0.000100
quickprop_mu=1.750000
rprop_increase_factor=1.200000
rprop_decrease_factor=0.500000
rprop_delta_min=0.000000
rprop_delta_max=50.000000
rprop_delta_zero=0.100000
cascade_output_stagnation_epochs=12
cascade_candidate_change_fraction=0.010000
cascade_candidate_stagnation_epochs=12
cascade_max_out_epochs=150
cascade_min_out_epochs=50
cascade_max_cand_epochs=150
cascade_min_cand_epochs=50
cascade_num_candidate_groups=2
bit_fail_limit=3.49999994039535520000e-001
cascade_candidate_limit=1.00000000000000000000e+003
cascade_weight_multiplier=4.00000005960464480000e-001
cascade_activation_functions_count=10
cascade_activation_functions=3 5 7 8 10 11 14 15 16 17 
cascade_activation_steepnesses_count=4
cascade_activation_steepnesses=2.50000000000000000000e-001 5.00000000000000000000e-001 7.50000000000000000000e-001 1.00000000000000000000e+000 
layer_sizes=3 4 4 
scale_included=0
neurons (num_inputs, activation_function, activation_steepness)=(0, 0, 0.00000000000000000000e+000) (0, 0, 0.00000000000000000000e+000) (0, 0, 0.00000000000000000000e+000) (3, 5, 5.00000000000000000000e-001) (3, 5, 5.00000000000000000000e-001) (3, 5, 5.00000000000000000000e-001) (0, 5, 0.00000000000000000000e+000) (4, 5, 5.00000000000000000000e-001) (4, 5, 5.00000000000000000000e-001) (4, 5, 5.00000000000000000000e-001) (0, 5, 0.00000000000000000000e+000) 
connections (connected_to_neuron, weight)=(0, 9.30122661590576170000e+000) (1, -7.24971666932106020000e-002) (2, 3.80318927764892580000e+000) (0, 1.29709882736206050000e+001) (1, 2.10419368743896480000e+000) (2, -1.94733881950378420000e+000) (0, 1.82976043224334720000e+000) (1, -1.24786352539062500000e+003) (2, 1.06602799892425540000e+000) (3, -3.54976201057434080000e+000) (4, 7.66465887427330020000e-002) (5, 5.02685643732547760000e-002) (6, 3.42786431312561040000e+000) (3, -1.17774367332458500000e+000) (4, 3.16536402702331540000e+000) (5, 1.76598107814788820000e+000) (6, 2.64010882377624510000e+000) (3, 2.75296640396118160000e+000) (4, -3.89001893997192380000e+000) (5, 1.82380580902099610000e+000) (6, -4.95457112789154050000e-001) 
