FANN_FLO_2.1
num_layers=3
learning_rate=0.700000
connection_rate=1.000000
network_type=0
learning_momentum=0.000000
training_algorithm=2
train_error_function=1
train_stop_function=0
cascade_output_change_fraction=0.010000
quickprop_decay=-0.000100
quickprop_mu=1.750000
rprop_increase_factor=1.200000
rprop_decrease_factor=0.500000
rprop_delta_min=0.000000
rprop_delta_max=50.000000
rprop_delta_zero=0.100000
cascade_output_stagnation_epochs=12
cascade_candidate_change_fraction=0.010000
cascade_candidate_stagnation_epochs=12
cascade_max_out_epochs=150
cascade_min_out_epochs=50
cascade_max_cand_epochs=150
cascade_min_cand_epochs=50
cascade_num_candidate_groups=2
bit_fail_limit=3.49999994039535520000e-001
cascade_candidate_limit=1.00000000000000000000e+003
cascade_weight_multiplier=4.00000005960464480000e-001
cascade_activation_functions_count=10
cascade_activation_functions=3 5 7 8 10 11 14 15 16 17 
cascade_activation_steepnesses_count=4
cascade_activation_steepnesses=2.50000000000000000000e-001 5.00000000000000000000e-001 7.50000000000000000000e-001 1.00000000000000000000e+000 
layer_sizes=3 4 4 
scale_included=0
neurons (num_inputs, activation_function, activation_steepness)=(0, 0, 0.00000000000000000000e+000) (0, 0, 0.00000000000000000000e+000) (0, 0, 0.00000000000000000000e+000) (3, 5, 5.00000000000000000000e-001) (3, 5, 5.00000000000000000000e-001) (3, 5, 5.00000000000000000000e-001) (0, 5, 0.00000000000000000000e+000) (4, 5, 5.00000000000000000000e-001) (4, 5, 5.00000000000000000000e-001) (4, 5, 5.00000000000000000000e-001) (0, 5, 0.00000000000000000000e+000) 
connections (connected_to_neuron, weight)=(0, 7.74048843383789060000e+001) (1, 3.65266978740692140000e-001) (2, 2.40713674575090410000e-002) (0, 6.61311149597167970000e+000) (1, -1.86941170692443850000e+000) (2, 1.56061339378356930000e+000) (0, 1.63455085754394530000e+001) (1, 1.09869062900543210000e-001) (2, -4.00552093982696530000e-001) (3, -3.64623284339904790000e+000) (4, -9.70104396343231200000e-001) (5, -2.78421950340271000000e+000) (6, 1.16816662251949310000e-001) (3, 4.71865463256835940000e+000) (4, 1.37359571456909180000e+000) (5, 5.13680362701416020000e+000) (6, 5.41893057525157930000e-002) (3, -4.41850610077381130000e-002) (4, 2.99462962150573730000e+000) (5, -2.91853308677673340000e+000) (6, 8.89504104852676390000e-002) 
