FANN_FLO_2.1
num_layers=3
learning_rate=0.700000
connection_rate=1.000000
network_type=0
learning_momentum=0.000000
training_algorithm=2
train_error_function=1
train_stop_function=0
cascade_output_change_fraction=0.010000
quickprop_decay=-0.000100
quickprop_mu=1.750000
rprop_increase_factor=1.200000
rprop_decrease_factor=0.500000
rprop_delta_min=0.000000
rprop_delta_max=50.000000
rprop_delta_zero=0.100000
cascade_output_stagnation_epochs=12
cascade_candidate_change_fraction=0.010000
cascade_candidate_stagnation_epochs=12
cascade_max_out_epochs=150
cascade_min_out_epochs=50
cascade_max_cand_epochs=150
cascade_min_cand_epochs=50
cascade_num_candidate_groups=2
bit_fail_limit=3.49999994039535520000e-001
cascade_candidate_limit=1.00000000000000000000e+003
cascade_weight_multiplier=4.00000005960464480000e-001
cascade_activation_functions_count=10
cascade_activation_functions=3 5 7 8 10 11 14 15 16 17 
cascade_activation_steepnesses_count=4
cascade_activation_steepnesses=2.50000000000000000000e-001 5.00000000000000000000e-001 7.50000000000000000000e-001 1.00000000000000000000e+000 
layer_sizes=3 4 4 
scale_included=0
neurons (num_inputs, activation_function, activation_steepness)=(0, 0, 0.00000000000000000000e+000) (0, 0, 0.00000000000000000000e+000) (0, 0, 0.00000000000000000000e+000) (3, 5, 5.00000000000000000000e-001) (3, 5, 5.00000000000000000000e-001) (3, 5, 5.00000000000000000000e-001) (0, 5, 0.00000000000000000000e+000) (4, 5, 5.00000000000000000000e-001) (4, 5, 5.00000000000000000000e-001) (4, 5, 5.00000000000000000000e-001) (0, 5, 0.00000000000000000000e+000) 
connections (connected_to_neuron, weight)=(0, -1.32213983535766600000e+001) (1, 1.41860222816467290000e+000) (2, 8.86763036251068120000e-001) (0, 5.74055767059326170000e+000) (1, 3.88650131225585940000e+000) (2, -2.15463423728942870000e+000) (0, 9.14509773254394530000e+000) (1, 8.83765637874603270000e-001) (2, 3.99308753013610840000e+000) (3, -2.08143591880798340000e-002) (4, 5.30480965971946720000e-002) (5, -3.36516475677490230000e+000) (6, 3.29413700103759770000e+000) (3, -3.29064226150512700000e+000) (4, 9.02741849422454830000e-001) (5, -1.07930791378021240000e+000) (6, 3.12577080726623540000e+000) (3, -5.08721351623535160000e-001) (4, -3.95547938346862790000e+000) (5, 3.35778188705444340000e+000) (6, -1.24350212514400480000e-001) 
