FANN_FLO_2.1
num_layers=3
learning_rate=0.700000
connection_rate=1.000000
network_type=0
learning_momentum=0.000000
training_algorithm=2
train_error_function=1
train_stop_function=0
cascade_output_change_fraction=0.010000
quickprop_decay=-0.000100
quickprop_mu=1.750000
rprop_increase_factor=1.200000
rprop_decrease_factor=0.500000
rprop_delta_min=0.000000
rprop_delta_max=50.000000
rprop_delta_zero=0.100000
cascade_output_stagnation_epochs=12
cascade_candidate_change_fraction=0.010000
cascade_candidate_stagnation_epochs=12
cascade_max_out_epochs=150
cascade_min_out_epochs=50
cascade_max_cand_epochs=150
cascade_min_cand_epochs=50
cascade_num_candidate_groups=2
bit_fail_limit=3.49999994039535520000e-001
cascade_candidate_limit=1.00000000000000000000e+003
cascade_weight_multiplier=4.00000005960464480000e-001
cascade_activation_functions_count=10
cascade_activation_functions=3 5 7 8 10 11 14 15 16 17 
cascade_activation_steepnesses_count=4
cascade_activation_steepnesses=2.50000000000000000000e-001 5.00000000000000000000e-001 7.50000000000000000000e-001 1.00000000000000000000e+000 
layer_sizes=3 4 4 
scale_included=0
neurons (num_inputs, activation_function, activation_steepness)=(0, 0, 0.00000000000000000000e+000) (0, 0, 0.00000000000000000000e+000) (0, 0, 0.00000000000000000000e+000) (3, 5, 5.00000000000000000000e-001) (3, 5, 5.00000000000000000000e-001) (3, 5, 5.00000000000000000000e-001) (0, 5, 0.00000000000000000000e+000) (4, 5, 5.00000000000000000000e-001) (4, 5, 5.00000000000000000000e-001) (4, 5, 5.00000000000000000000e-001) (0, 5, 0.00000000000000000000e+000) 
connections (connected_to_neuron, weight)=(0, 8.13484096527099610000e+000) (1, -8.21231245994567870000e-001) (2, 2.48975110054016110000e+000) (0, 5.77655220031738280000e+000) (1, 2.16082262992858890000e+000) (2, -1.39283847808837890000e+000) (0, 6.71432614326477050000e-001) (1, -1.39445447921752930000e+000) (2, 5.99921882152557370000e-001) (3, -3.64653706550598140000e+000) (4, 1.60392433404922490000e-001) (5, 1.12642705440521240000e+000) (6, 2.85642099380493160000e+000) (3, -1.63923108577728270000e+000) (4, 3.31636309623718260000e+000) (5, 5.20261907577514650000e+000) (6, 1.86937582492828370000e+000) (3, 3.97264599800109860000e+000) (4, -4.48594903945922850000e+000) (5, 1.56771898269653320000e+000) (6, -4.78065878152847290000e-001) 
